22 100
신맛 -0.10334672 0.15183751 0.09450568 0.07569799 0.051480934 -0.11674127 0.113372 0.29200578 -0.20606036 -0.18493995 0.05129939 -0.18194504 -0.031995393 0.0141580105 0.072891 -0.07940409 0.13509542 0.05669531 -0.14291482 -0.33258805 0.019452192 -0.03245445 0.25576416 -0.07587999 -0.03826261 0.033456907 -0.07857877 0.0937939 -0.09171685 0.087923005 0.11238804 -0.17240809 0.03895535 -0.16082712 -0.03474077 0.116088055 0.11269637 0.050611183 -0.04173984 -0.03118359 0.09409314 -0.09568836 -0.18009725 0.15468185 0.05398098 -0.023656055 -0.05749948 -0.034763698 0.030650508 0.08127085 0.055137947 -0.13425456 0.0027155331 -0.04865475 -0.10524185 -0.045531414 0.083590955 -0.07513569 -0.016547926 0.03446784 -0.05014662 -0.048015077 0.1994308 -0.047842372 -0.099279314 0.21608281 0.086747475 0.2115153 -0.14690767 0.0048832046 0.05586738 0.19028154 0.1416519 0.1413727 0.07499937 0.09429795 0.08316512 0.06508411 -0.015913583 -0.114845626 -0.17986487 -0.024195822 0.05851135 0.03185004 -0.052562494 -0.10946585 0.10457287 -0.10747959 0.06886792 0.022633914 0.11569257 0.09102025 0.07768088 -0.047245394 0.27571538 0.08703917 0.08062758 -0.08658669 0.053644273 0.014519221
단맛 -0.120690666 0.16662624 0.10129995 0.07936713 0.07462576 -0.12423283 0.117314175 0.3119674 -0.22005172 -0.20213641 0.046545576 -0.20407636 -0.03594766 0.01648906 0.087030895 -0.07544011 0.15040755 0.0687468 -0.14921391 -0.34933987 0.016147219 -0.04430749 0.27785304 -0.09291149 -0.040342692 0.0435323 -0.089356676 0.1003684 -0.09346475 0.10579865 0.14124587 -0.18946268 0.030706221 -0.17183396 -0.031949386 0.1301158 0.12023161 0.06803583 -0.034767795 -0.01845109 0.12173354 -0.11616828 -0.19448058 0.1710748 0.05608804 -0.016217247 -0.048444834 -0.049906597 0.030552527 0.079126604 0.076580405 -0.1603 0.0074614226 -0.050577212 -0.12430791 -0.03535246 0.09422395 -0.067120396 -0.014328551 0.034643736 -0.061011083 -0.048394125 0.21645573 -0.04807977 -0.102054074 0.23647451 0.1023264 0.21686976 -0.14839388 0.009759937 0.05044671 0.18666627 0.16071385 0.16889721 0.075225316 0.09243477 0.07431264 0.06846617 -0.00902979 -0.1194108 -0.20418753 -0.026859757 0.06171005 0.020139921 -0.0489473 -0.12333384 0.10726692 -0.121070854 0.079584755 0.011092973 0.123175085 0.09640705 0.08302058 -0.059050396 0.28516084 0.091146745 0.10276931 -0.08763863 0.0474143 0.014286509
있음 -0.103111595 0.15232906 0.08022841 0.06471352 0.06829279 -0.100083776 0.10181254 0.2817183 -0.2064805 -0.17204961 0.038234994 -0.1811296 -0.01860323 0.008919226 0.083818465 -0.082419835 0.1362599 0.06611904 -0.14097512 -0.32277575 0.004775293 -0.04178072 0.24270286 -0.08289532 -0.0349506 0.03198106 -0.06812701 0.092672095 -0.09006938 0.094384685 0.12559868 -0.17637101 0.021215199 -0.15391028 -0.040978197 0.11445271 0.10316114 0.059522428 -0.038932133 -0.0259681 0.09802784 -0.09783062 -0.17014763 0.16293626 0.05757334 -0.01772695 -0.04791389 -0.046701454 0.021095188 0.06873741 0.06470481 -0.14019728 -0.00085148343 -0.056880984 -0.12237671 -0.046784755 0.07627207 -0.07223945 -0.019167278 0.020144656 -0.043461796 -0.050942365 0.2108086 -0.038126387 -0.10367878 0.21976076 0.094726846 0.20845865 -0.14951266 0.008542784 0.05342954 0.18394299 0.14537126 0.15057659 0.06660046 0.09986853 0.0833459 0.069184214 -0.016248697 -0.10485863 -0.17586297 -0.036841895 0.04450737 0.02431642 -0.04545105 -0.116581775 0.09344681 -0.108498044 0.07780562 0.014856696 0.106831275 0.09543082 0.082954735 -0.05176913 0.27091584 0.08611071 0.09611977 -0.07744737 0.060351703 0.001751203
맛_모름 -0.07174972 0.10134807 0.051955804 0.03844867 0.042499587 -0.069348924 0.067718334 0.17697687 -0.1145861 -0.1158917 0.03540701 -0.10284388 -0.01388286 -0.0018236731 0.055149887 -0.04861534 0.08789716 0.028211605 -0.0896976 -0.1859684 0.009571895 -0.025607139 0.16038218 -0.0351909 -0.036677588 0.02441129 -0.03937582 0.056566257 -0.0490994 0.05534996 0.074712984 -0.1078803 0.0094482 -0.09680307 -0.014204628 0.07924102 0.07352989 0.029730475 -0.033541523 -0.005535132 0.06633868 -0.056417983 -0.09715357 0.09284737 0.041070398 -0.01082553 -0.026394706 -0.02794666 0.013495427 0.040095747 0.043514907 -0.08319554 -0.0044675507 -0.04003112 -0.07561915 -0.024689808 0.049970414 -0.031730212 -0.0035554022 0.009023602 -0.0275168 -0.023092924 0.1305991 -0.025640767 -0.053789932 0.12242352 0.053367198 0.13331567 -0.089202486 -0.007522134 0.035467368 0.104292534 0.08503323 0.10133917 0.039646603 0.05051044 0.038038358 0.04852772 -0.012709214 -0.062786505 -0.11379298 -0.011734023 0.036942635 0.0149752535 -0.02921515 -0.07091531 0.06897812 -0.05563544 0.039020177 -0.0018600073 0.061229896 0.052982423 0.04422849 -0.031241683 0.17067955 0.048091326 0.05927763 -0.055372067 0.027349537 -0.00070175447
목넘김_모름 -0.07782399 0.10457243 0.05192316 0.043560483 0.045570884 -0.06795267 0.07384762 0.1932814 -0.14007433 -0.11454509 0.023295358 -0.116658665 -0.027731827 0.007327512 0.04741158 -0.056424677 0.08610185 0.043627575 -0.08542718 -0.22260801 0.009669529 -0.03422204 0.1768617 -0.041589055 -0.03301167 0.025624821 -0.05116488 0.06520744 -0.06596595 0.061965987 0.089170404 -0.114238985 0.020738557 -0.114489876 -0.012567231 0.073015645 0.068758905 0.04293335 -0.028723203 -0.015808504 0.072386645 -0.075680315 -0.12598184 0.11708143 0.04385121 -0.022414798 -0.030358208 -0.02926054 0.023239052 0.040667094 0.047324646 -0.08896884 0.015387537 -0.038422834 -0.07894242 -0.03513784 0.043940056 -0.055561993 -0.010370514 0.009407355 -0.027008045 -0.038275916 0.1404611 -0.026457332 -0.069111206 0.14319107 0.07009264 0.14965923 -0.10191451 0.011500205 0.027607743 0.12814735 0.093543924 0.105575696 0.05079683 0.06983687 0.047617253 0.054818325 -0.0006502468 -0.082484886 -0.13006921 -0.027216615 0.039383277 0.012638184 -0.038561676 -0.0840079 0.075705655 -0.066849835 0.037882935 0.004709233 0.080145836 0.05627086 0.055779863 -0.036261763 0.18306752 0.046559323 0.06676416 -0.048528194 0.035341524 0.00893008
피로회복 -0.06411261 0.081970885 0.04456034 0.026564801 0.022978058 -0.057834085 0.061737373 0.1515033 -0.111792 -0.10060817 0.017802523 -0.09613013 -0.022480201 -0.005331553 0.03711505 -0.0493524 0.06167352 0.022901412 -0.073857605 -0.16908045 -0.0025437756 -0.020592466 0.13900469 -0.03134725 -0.030272419 0.014405016 -0.035863277 0.035225205 -0.04291247 0.053395703 0.07048974 -0.10008877 0.00977854 -0.09014593 -0.016562263 0.07137136 0.062481306 0.035930138 -0.015315812 -0.017611694 0.06425256 -0.06080238 -0.097484395 0.07984486 0.028409671 -0.0142193055 -0.026384706 -0.014006028 0.013382349 0.035535168 0.036758594 -0.08104324 0.012435053 -0.01677112 -0.06999273 -0.019266432 0.052590348 -0.044313144 -0.015804749 0.0026926775 -0.0156048015 -0.025125805 0.11602447 -0.030745547 -0.046992052 0.11416144 0.047131408 0.11078106 -0.083676614 -0.0076179993 0.027973162 0.10088316 0.083637714 0.08466721 0.035254806 0.05561608 0.027873965 0.039421625 -0.0060428805 -0.051993262 -0.08597819 -0.023106374 0.033813402 0.0003176126 -0.02468915 -0.06830392 0.0459262 -0.04444712 0.03360617 0.010682456 0.0683737 0.056438696 0.030473705 -0.027965574 0.15066576 0.048268497 0.04333153 -0.050302256 0.029173171 -0.0027746677
장건강 -0.09735754 0.14875509 0.08889204 0.069612876 0.06233448 -0.109623246 0.1146281 0.2871121 -0.20825228 -0.18505286 0.050205164 -0.18236482 -0.028450195 0.018102035 0.07415945 -0.07898206 0.14458103 0.06525855 -0.13518545 -0.33718744 0.0132016605 -0.03971972 0.2632304 -0.07676142 -0.04251015 0.040642425 -0.08088621 0.085103706 -0.08604034 0.09104565 0.13027799 -0.16457967 0.02896375 -0.151771 -0.040237032 0.12175713 0.0990767 0.048926823 -0.048324294 -0.035052735 0.11437677 -0.10844583 -0.16577858 0.15389438 0.05905158 -0.012773951 -0.059483003 -0.056164954 0.021790404 0.06896071 0.064048216 -0.15098551 -0.0025399735 -0.04784325 -0.12509811 -0.050992317 0.07736817 -0.07876758 -0.01980388 0.01651789 -0.049519632 -0.053704474 0.21543735 -0.038678356 -0.10327141 0.22328487 0.082414456 0.20435306 -0.15414064 -0.0016497936 0.04899604 0.19097471 0.14263035 0.15826035 0.0788268 0.087019466 0.08162068 0.072621904 -0.017116483 -0.10132613 -0.17584832 -0.03591655 0.046427608 0.028715465 -0.049677227 -0.12009176 0.1102639 -0.10977873 0.066269904 0.015520279 0.11136653 0.09323817 0.07228622 -0.04920914 0.2697563 0.08455492 0.10192312 -0.086169146 0.052948587 0.014174693
좋음 -0.100694284 0.15299906 0.10446806 0.07902143 0.060362544 -0.11593977 0.11730533 0.2967526 -0.21916546 -0.20054024 0.043815214 -0.19250946 -0.02587639 0.005971489 0.08140921 -0.07881364 0.14658943 0.060216308 -0.14842658 -0.35350814 0.013209843 -0.03206942 0.2658179 -0.09032473 -0.05467015 0.04762296 -0.08743188 0.10191536 -0.098038286 0.108386375 0.1209561 -0.17652431 0.029072685 -0.17115538 -0.038647067 0.123316504 0.10404067 0.05857889 -0.05215696 -0.02417346 0.12172558 -0.10995032 -0.18313654 0.17189105 0.067270406 -0.031618718 -0.06099103 -0.05083396 0.038744405 0.07754722 0.057848237 -0.14968035 0.018070959 -0.061051697 -0.12685788 -0.032748327 0.07232651 -0.06859846 -0.012688751 0.03527375 -0.041686166 -0.053449925 0.21287447 -0.031346817 -0.10085456 0.23345482 0.082701474 0.22891606 -0.15381415 -0.00453131 0.05876286 0.19215424 0.15703431 0.15627863 0.070796795 0.1010788 0.09059529 0.06330729 -0.010352699 -0.1217918 -0.19773851 -0.029938426 0.045238283 0.030573059 -0.04841489 -0.12184237 0.110805474 -0.09680496 0.08573699 0.013521502 0.12315153 0.09247289 0.07088385 -0.043624487 0.28022146 0.08648585 0.0942243 -0.09010264 0.061420027 0.004572227
재구매의사_모름 -0.078528546 0.10913915 0.061819896 0.053975202 0.04711793 -0.068367094 0.081218705 0.18160418 -0.13946192 -0.11411618 0.032802336 -0.1242009 -0.008672913 0.0019390308 0.060324315 -0.050447732 0.08027558 0.034988593 -0.09684365 -0.21468958 0.008814465 -0.01517594 0.17401849 -0.056447376 -0.02526423 0.025816169 -0.052479327 0.048039064 -0.054744203 0.051325206 0.08692896 -0.11961534 0.024350245 -0.09163239 -0.021900855 0.08247334 0.06817386 0.04528148 -0.022596164 -0.026640203 0.06632608 -0.06286959 -0.11323417 0.10261646 0.035159286 -0.015698358 -0.032264397 -0.024258737 0.012669253 0.042796113 0.04209116 -0.091481216 0.004241419 -0.03722549 -0.07147637 -0.029796325 0.055020608 -0.045230642 -0.0036435714 0.007637471 -0.03817037 -0.036169175 0.14446576 -0.029194161 -0.07403668 0.14007615 0.053427927 0.14167339 -0.105532914 0.004938696 0.023091782 0.12088013 0.10064624 0.10673507 0.038275827 0.05448345 0.041595314 0.036392346 -0.018478725 -0.07215481 -0.11835047 -0.027024988 0.042039562 0.015936691 -0.024800386 -0.07297018 0.065567836 -0.07546863 0.04357347 0.014453339 0.068967335 0.06110067 0.05176942 -0.03312808 0.186281 0.06254655 0.061159715 -0.044993423 0.040247373 -0.00023692477
과일맛 -0.093818255 0.121971555 0.06784555 0.0657574 0.050325885 -0.100369304 0.08728716 0.24731871 -0.17549329 -0.15902027 0.038201515 -0.15746029 -0.025615307 0.008034369 0.063414335 -0.057397474 0.117985405 0.039054647 -0.10873338 -0.2834717 0.011517495 -0.0270971 0.20824935 -0.067269295 -0.02892959 0.027987026 -0.07435212 0.085475706 -0.07523441 0.07432014 0.11230237 -0.1418289 0.029103817 -0.12282653 -0.03682937 0.10567455 0.09136597 0.05336482 -0.03353009 -0.017613607 0.09449071 -0.08056232 -0.1500469 0.13154407 0.04657728 -0.01747357 -0.04717895 -0.032015193 0.027498603 0.068757504 0.056473166 -0.11097728 0.0044949874 -0.034960628 -0.094311565 -0.04279514 0.06306815 -0.061599497 -0.0062533994 0.020935968 -0.043419693 -0.032923337 0.18487257 -0.035003733 -0.08872201 0.17849155 0.07017608 0.16732469 -0.121976346 -0.0022945907 0.04640206 0.16077505 0.118493356 0.11880109 0.062363956 0.0733885 0.06791482 0.05261055 -0.004176097 -0.091032945 -0.15015897 -0.027485134 0.043253407 0.02951995 -0.038839217 -0.101898484 0.07750233 -0.0855113 0.067686185 0.018171547 0.088304624 0.08677175 0.06832781 -0.032985583 0.2379332 0.06300958 0.06883714 -0.062442128 0.055255618 0.010849604
질건강 -0.0772837 0.122539476 0.082404695 0.044446748 0.042086054 -0.09692098 0.08382458 0.23868671 -0.16919544 -0.15811607 0.04368 -0.15276128 -0.014117831 0.001035724 0.06780204 -0.05996857 0.11156013 0.043434914 -0.107072264 -0.27540982 0.0072047305 -0.033431582 0.21201654 -0.066120505 -0.043617174 0.035328183 -0.065303825 0.06982369 -0.06302407 0.08041231 0.093755394 -0.13945219 0.033239137 -0.11874954 -0.020482603 0.101419784 0.08711425 0.043986395 -0.041200846 -0.022059128 0.08408246 -0.08341718 -0.14725755 0.13878459 0.037689574 -0.027951306 -0.043887217 -0.038803365 0.013536808 0.060305078 0.04688671 -0.11538019 -0.0011175239 -0.039519098 -0.089953385 -0.034004744 0.058663752 -0.057971645 -0.0028238466 0.025585767 -0.049107622 -0.043824416 0.17013684 -0.030049294 -0.08991457 0.18040761 0.06381749 0.16286227 -0.1153847 -0.0018029384 0.046151023 0.15918583 0.11431444 0.13301028 0.060499247 0.088033505 0.06944195 0.04457035 -0.014424437 -0.08078752 -0.14249597 -0.012717596 0.05027442 0.030000119 -0.04887926 -0.087153554 0.07722811 -0.080466434 0.06594225 0.017704772 0.10202978 0.07626257 0.060396485 -0.03382086 0.2137517 0.067867324 0.08406411 -0.071082264 0.0484825 -0.0013719974
맛있다 -0.058049206 0.10811686 0.06017127 0.04985128 0.042202305 -0.0783785 0.069992915 0.19262145 -0.13693902 -0.122782946 0.03378031 -0.11565245 -0.020290587 0.0025723 0.05690589 -0.05694634 0.08262052 0.02961072 -0.09288206 -0.22134107 0.0042442866 -0.033440195 0.16572462 -0.058827776 -0.039721154 0.015777389 -0.05788677 0.06402976 -0.051968608 0.06005768 0.07641109 -0.12037997 0.0197821 -0.101150766 -0.020231918 0.07866045 0.06945885 0.03749698 -0.03539333 -0.024159474 0.059789784 -0.068170615 -0.111054145 0.11205193 0.03409475 -0.017916635 -0.022896454 -0.02868408 0.015128044 0.056115683 0.044719093 -0.09632709 0.012422665 -0.028016388 -0.08136149 -0.027391288 0.052591164 -0.039326686 -0.010745744 0.012727206 -0.029975127 -0.030965872 0.13462168 -0.029454734 -0.07037705 0.14766924 0.06535257 0.14471562 -0.10369466 0.0048518674 0.028910898 0.12938298 0.09719824 0.10408358 0.04869459 0.06730489 0.043098696 0.05185983 -0.010527614 -0.07503912 -0.120375074 -0.008245147 0.028093217 0.012949701 -0.023325961 -0.07353115 0.058883462 -0.07432088 0.055366788 0.016704323 0.08001506 0.055759396 0.03949303 -0.027261464 0.18277633 0.04816312 0.04970007 -0.055151146 0.028889362 0.0030072136
맛없다 -0.08597161 0.11682129 0.081118025 0.044522993 0.054096717 -0.08306785 0.08524041 0.23868486 -0.15316519 -0.15242548 0.028750045 -0.15291172 -0.030954218 0.0034888552 0.057136483 -0.07165115 0.10875656 0.049211137 -0.1024333 -0.26468146 0.005410393 -0.028872516 0.20269412 -0.052816663 -0.03548246 0.03764118 -0.07132171 0.080548376 -0.07094376 0.083478995 0.09022591 -0.13643666 0.024161242 -0.12471379 -0.03218521 0.08625375 0.07702526 0.037398696 -0.032261368 -0.020728126 0.083184995 -0.07464648 -0.14086348 0.12713248 0.035710666 -0.028589232 -0.032161724 -0.04239509 0.01497797 0.06291683 0.05798291 -0.11994244 0.0062009175 -0.04669781 -0.09148564 -0.037853714 0.0600983 -0.05382745 -0.0017899587 0.026943902 -0.048113752 -0.044659097 0.17440912 -0.029929945 -0.08316381 0.17361657 0.08074141 0.16670549 -0.12697816 0.003191983 0.047809076 0.15379648 0.12005332 0.116162576 0.057439942 0.07576419 0.06638295 0.045848325 -0.019161338 -0.086083464 -0.15391123 -0.017236188 0.041839264 0.030986857 -0.04358165 -0.0916304 0.088882305 -0.08669713 0.052758843 0.013670068 0.094454914 0.07148269 0.067015044 -0.046650127 0.21977736 0.06718525 0.08267276 -0.058864396 0.05040189 0.014975555
유제품맛 -0.09548252 0.13524672 0.06674644 0.052513827 0.04559308 -0.09636622 0.080499426 0.22922492 -0.17344838 -0.15275063 0.030892942 -0.14492248 -0.032751307 0.0013639237 0.07423068 -0.05820288 0.11942297 0.05252421 -0.11123392 -0.27777874 0.01594952 -0.028468775 0.21664828 -0.056966268 -0.028797843 0.04062839 -0.07560439 0.06826803 -0.07007273 0.08393826 0.107681476 -0.136393 0.032713767 -0.13305962 -0.021230748 0.09380224 0.07704216 0.055559907 -0.03474061 -0.02472662 0.08473333 -0.08855577 -0.13857332 0.13800101 0.042914923 -0.027689533 -0.04640453 -0.038736664 0.027644528 0.05659817 0.052208308 -0.11550867 -0.0019816458 -0.04006329 -0.09726078 -0.03238837 0.06919562 -0.059699122 -0.012935947 0.02948727 -0.035161514 -0.034306202 0.17635134 -0.023393366 -0.074943684 0.17780066 0.08203126 0.17766143 -0.11576416 0.00066379085 0.040929966 0.14888714 0.11052065 0.12874624 0.06909126 0.08866622 0.06323304 0.06080258 -0.007841612 -0.09340843 -0.14783552 -0.028908964 0.051824596 0.028697243 -0.03736964 -0.08940651 0.09246576 -0.07799155 0.059595883 0.0061959866 0.10360405 0.0836217 0.064539574 -0.04148632 0.21663179 0.064113334 0.08628361 -0.06977351 0.039551683 0.017209213
맛상세_없음 -0.02985092 0.063566804 0.03168934 0.015502868 0.03021283 -0.04205755 0.04413776 0.1042562 -0.06092193 -0.072810985 0.024983158 -0.07243502 -0.017385961 -0.0066020815 0.021573279 -0.019859536 0.05532211 0.015835444 -0.044413675 -0.11652208 0.012561426 -0.007517345 0.08848639 -0.02955786 -0.02309978 0.0173639 -0.024875175 0.027715461 -0.02186016 0.027656952 0.034166824 -0.06385195 0.010215771 -0.062072977 -0.01628874 0.03320903 0.047644824 0.028320305 -0.014361625 -0.0017477084 0.044644706 -0.03655225 -0.05428066 0.059692834 0.024756301 -0.00042731524 -0.02210792 -0.0167956 0.010432709 0.029296359 0.026196161 -0.043528765 0.0072526643 -0.025927782 -0.043668766 -0.021923138 0.03857609 -0.01941605 -0.005269468 0.011617162 -0.024205228 -0.022797545 0.07519494 -0.00850232 -0.030138103 0.08107077 0.029465068 0.06979368 -0.050847284 -0.0019984937 0.01168207 0.055908654 0.057151858 0.052268602 0.022562698 0.024423975 0.03461057 0.02530232 -0.0024559945 -0.035399478 -0.070773885 -0.00896199 0.02268388 -0.0016219056 -0.0114358375 -0.03744294 0.042331334 -0.030931864 0.020733336 -0.0024195784 0.047280572 0.03392244 0.031544138 -0.010295904 0.09656958 0.022382079 0.030704081 -0.019611493 0.011324477 0.012502461
다이어트 -0.08768977 0.12083557 0.07049103 0.05885582 0.042434387 -0.08899745 0.07633634 0.2226903 -0.16033085 -0.1319307 0.029094042 -0.14922099 -0.026792457 0.012672845 0.053414874 -0.065140724 0.09653676 0.05062135 -0.10050738 -0.24776262 0.0062967916 -0.022331841 0.18724042 -0.060269564 -0.039423905 0.028551403 -0.06237143 0.077409625 -0.06586269 0.062905796 0.088478304 -0.13888124 0.025217231 -0.1095078 -0.032123752 0.09918874 0.08920911 0.036650416 -0.041303944 -0.010401198 0.090024844 -0.082788825 -0.13919844 0.13070285 0.04623602 -0.009558204 -0.04742505 -0.04478215 0.02185524 0.04516183 0.044196986 -0.11158169 0.013981697 -0.030313265 -0.09210907 -0.02657946 0.06905057 -0.0561308 -0.00043404853 0.026642118 -0.035080418 -0.041089814 0.154651 -0.033185948 -0.067813985 0.15940933 0.06497408 0.1688868 -0.10868276 0.0075889714 0.031670775 0.1401518 0.11618485 0.1114976 0.06281161 0.08169929 0.059214372 0.049028147 -0.011230761 -0.088055715 -0.14722763 -0.024177145 0.038074683 0.024780087 -0.04382817 -0.08165684 0.07086551 -0.08672838 0.06357315 0.020433582 0.084128596 0.07469561 0.05257233 -0.04588058 0.20100313 0.07036439 0.077903956 -0.05207393 0.048871122 0.014019047
불편 -0.04016256 0.05092254 0.03989749 0.026701918 0.030519681 -0.042145588 0.04011479 0.120944776 -0.079318814 -0.072356395 0.012841124 -0.08004757 -0.01918038 0.011669608 0.022102205 -0.02212027 0.043257643 0.021639768 -0.056089863 -0.13836357 0.013807858 -0.008363435 0.10305926 -0.025482466 -0.017825922 0.02378127 -0.023961417 0.025451465 -0.038632464 0.035287865 0.051415212 -0.07298109 0.013114089 -0.07018285 -0.009743862 0.05186522 0.04696355 0.019912606 -0.025017416 -0.02009671 0.04068315 -0.04789997 -0.07563856 0.06967043 0.029333355 -0.0075547346 -0.027883591 -0.022580437 0.019139383 0.03283822 0.020033369 -0.062449086 0.004255828 -0.01632572 -0.04345648 -0.013343736 0.025817769 -0.03752217 -0.012789098 0.009805168 -0.01393529 -0.0144491745 0.08328159 -0.011098916 -0.03908981 0.089477725 0.026151659 0.09099211 -0.05177448 0.006146133 0.02735951 0.08136536 0.057931043 0.05847718 0.028747339 0.0281177 0.038166214 0.020651901 0.0036091495 -0.047421325 -0.07103362 -0.020411482 0.011763413 0.0015678458 -0.026213212 -0.044642176 0.032442942 -0.045455944 0.023120714 0.0018658069 0.052808773 0.040991753 0.038217068 -0.011617399 0.101539664 0.039782133 0.025609098 -0.034809057 0.013073342 0.0072559877
부정 -0.03348977 0.059339054 0.0331205 0.01658003 0.029278016 -0.043342303 0.04627887 0.10002157 -0.072858796 -0.066266686 0.0105338665 -0.06755235 -0.0003710125 0.00036225395 0.034213725 -0.036466725 0.04643859 0.017342493 -0.03864064 -0.119539924 0.012162793 -0.018546434 0.079195686 -0.031700015 -0.018898133 0.00856518 -0.029549692 0.022279978 -0.02829692 0.030184139 0.040014796 -0.055537492 0.0021970375 -0.056678645 -0.0051925876 0.04896697 0.026316999 0.027260805 -0.008614862 -0.013588195 0.04380157 -0.044269893 -0.051631354 0.060128525 0.020149749 -0.013240367 -0.02081364 -0.017983373 0.01105292 0.02648741 0.029604016 -0.037154254 0.012231933 -0.020804942 -0.029010706 -0.014754684 0.032036666 -0.020992713 -0.0058182864 0.011242456 -0.02159848 -0.021968188 0.06166653 -0.012349778 -0.027023604 0.074076846 0.031834923 0.07441126 -0.04127651 -0.006193708 0.019033616 0.05479565 0.052827235 0.061259754 0.031675976 0.037897605 0.033041004 0.030167693 0.0030455133 -0.028223243 -0.066751115 -0.00029846662 0.023318412 0.0049387347 -0.0070199384 -0.033262 0.04333283 -0.032677468 0.033715174 0.006402713 0.04850458 0.03418262 0.032113653 -0.019513423 0.09848022 0.03494433 0.02703519 -0.028853517 0.020643119 -0.0042474247
피로회복,장건강 -0.017296672 0.029211972 0.01626462 0.02052133 0.022540795 -0.03354974 0.03050204 0.082217574 -0.058862306 -0.052850276 0.0063484157 -0.050426755 -0.0054887 0.012194869 0.026446385 -0.019297289 0.036995903 0.023431284 -0.026095966 -0.07726962 0.0091081085 -0.017238725 0.060936302 -0.025506454 -0.0048172586 0.0073799537 -0.028527517 0.030425759 -0.013478823 0.020332504 0.04104721 -0.045271352 0.0034869346 -0.04029966 -0.008476897 0.027113875 0.0304438 0.020483064 -0.0036235326 -0.015405503 0.025270259 -0.031852793 -0.036697946 0.04706126 0.009979203 -0.0026811725 -0.019074233 -0.0113587035 0.016278066 0.015568536 0.011335239 -0.044004392 -0.0015170688 -0.013558361 -0.026658878 -0.0005784927 0.017414546 -0.01580155 0.00589709 0.0076161483 -0.011232861 -0.0021819328 0.06233068 -0.0027509052 -0.031191673 0.06536348 0.028480697 0.06228868 -0.039271004 0.004063506 0.019815171 0.04257692 0.043904584 0.04164126 0.027425963 0.020290606 0.015954467 0.023424804 -0.012591952 -0.034742728 -0.052802775 -0.008564093 0.01108189 0.012740838 -0.002791587 -0.03016494 0.026918072 -0.024684316 0.016150892 -0.004456347 0.03638513 0.01923681 0.023728592 -0.0033981907 0.07186902 0.024660356 0.027623078 -0.023508145 0.017026903 0.0025797568
없음 -0.010551019 0.028907975 0.015401892 0.01645072 0.00049228093 -0.010193355 0.025859501 0.03947535 -0.02947643 -0.033082303 0.0078520775 -0.025179809 0.0037897725 0.0018436549 0.014388383 -0.010579108 0.028896313 0.0030205783 -0.027297487 -0.05334777 -0.00046759774 -0.00049831567 0.030350322 -0.0146515025 -0.014848453 0.010785371 -0.014415004 0.004702885 -0.00912877 0.023042368 0.015754271 -0.03254469 0.007499593 -0.024237312 -0.01534592 0.026581598 0.009154174 0.0039696395 -0.008925679 -0.009327431 0.01794859 -0.005746622 -0.022052143 0.032488123 0.00808636 -0.0026209804 -0.0105147725 -0.015500066 0.007568381 0.0131207295 0.00036484707 -0.026486449 -0.0086785015 -0.013423366 -0.013776541 0.002258 0.016497167 -0.008286346 0.006026136 0.0025567045 -0.008739136 -0.016108608 0.03160195 -0.008911892 -0.014738549 0.040310744 0.006473616 0.027902648 -0.02913064 -0.003062652 0.0043564825 0.030137705 0.025591308 0.018040087 0.006183806 0.015311886 0.017041523 0.015585923 -0.0050641126 -0.020878255 -0.0333847 -0.0052220924 0.010080072 0.0051876293 0.00013781808 -0.020180423 0.015124267 -0.02145621 0.009722807 -0.0053367354 0.016292462 0.015430706 0.0029164234 0.0014230399 0.03215167 0.0030247339 0.005283205 -0.004769921 0.013660465 0.010676365
피로회복,질건강,장건강 -0.007478226 0.015523134 0.006267938 0.015984703 0.008631382 -0.0066838516 0.009296701 0.02864043 -0.013166202 -0.018543586 0.0075817797 -0.01832386 0.0024774454 0.004383871 0.01013562 -0.012823146 0.00813092 0.009710312 -0.019197274 -0.031879526 0.00062637747 -9.98966e-05 0.016034229 0.0013253859 -0.0058234273 -0.0016874605 -0.0035111904 0.0067045824 -0.016126974 0.0045484654 0.011374346 -0.025756087 0.0034427324 -0.012817964 -0.00631139 0.014108432 0.012818623 0.015586816 -0.002685525 -0.0006314914 0.012943121 -0.012041815 -0.025603855 0.023584312 0.003424905 -0.0120866 -0.011546355 -0.008122946 0.006693925 0.012150136 0.012151536 -0.020374173 0.0015160779 -0.0075914077 -0.016378826 0.0031120835 0.011578721 -0.009861091 -0.009681291 -0.0026425563 -0.005171867 0.0032437122 0.02595512 -0.0123124635 -0.01910314 0.02810137 0.006156616 0.01669042 -0.008323347 -0.0056317216 0.010188475 0.017617581 0.0071740462 0.014358912 0.013235242 0.018436411 0.009628206 0.011430716 -0.006174097 -0.011345503 -0.022820385 -0.0015591225 0.0033196206 -0.0012821492 -0.011633276 -0.0012971039 0.012571442 -0.012127788 0.0028584038 0.009235286 0.0048097065 0.012000784 0.008018018 0.003816571 0.032951985 0.005196632 0.011115085 -0.009653452 -0.0043506688 -0.0019286028
피로회복,질건강 -0.005843969 0.016808465 0.016145937 0.0139430575 -0.003780592 -0.0009685244 0.0017665627 0.018522954 -0.013417526 -0.005864919 0.007437717 -0.007804419 0.0074450052 0.0011194652 -0.0007559408 -0.011655632 0.015311547 -0.0013757028 -0.01236154 -0.01802114 -0.0015058616 -0.008567387 0.014975037 -0.0040411428 -0.00077116396 0.008548426 -0.010498951 0.00905474 0.0013533764 0.008491191 0.013919409 -0.016836386 0.008081195 -0.0182722 0.0012240789 -0.0011080463 0.00475302 -0.005170263 -0.0043397164 -0.007375368 0.0031913873 -0.0058630574 -0.00911273 0.009201316 -0.00443932 -0.0073687388 -0.0025501223 -0.006873075 -0.0075635817 0.00421301 0.01098973 -0.003946149 -0.009403931 -0.000109641376 -0.013973844 -0.011805249 0.0056863395 -0.005139704 -0.008084028 -0.004777062 -0.0055910577 0.0039828136 0.0065701464 0.0047317594 -0.0072550005 0.015888562 0.015504312 0.018990997 -0.013645079 0.003986655 0.00700384 0.018905843 0.010052926 0.005937028 0.006065429 0.0007330245 0.006274085 0.009458841 0.004157106 0.0017334349 -0.019762518 -0.007488412 0.009968229 0.0028116347 -0.009773241 -0.006936889 0.009297259 -0.009759921 -0.00022097403 0.0060929605 0.01737315 -0.0011626396 0.00484857 -0.0058207335 0.012065881 0.004423232 0.00071485096 0.0034091766 -0.0023606513 0.0042165755
